{"gradients/clf.bias": {"_type": "histogram", "values": [1.0, 0.0, 0.0, 0.0, 1.0, 0.0, 0.0, 0.0, 0.0, 0.0, 0.0, 0.0, 0.0, 0.0, 0.0, 0.0, 0.0, 0.0, 0.0, 0.0, 0.0, 0.0, 0.0, 0.0, 0.0, 0.0, 0.0, 0.0, 0.0, 0.0, 0.0, 0.0, 0.0, 0.0, 0.0, 0.0, 0.0, 0.0, 0.0, 0.0, 0.0, 0.0, 0.0, 0.0, 0.0, 0.0, 0.0, 0.0, 0.0, 0.0, 0.0, 0.0, 0.0, 0.0, 0.0, 0.0, 0.0, 0.0, 0.0, 0.0, 0.0, 0.0, 0.0, 1.0], "bins": [-0.0671398788690567, -0.06418270617723465, -0.0612255334854126, -0.05826835706830025, -0.055311184376478195, -0.05235401168465614, -0.04939683899283409, -0.04643966630101204, -0.04348248988389969, -0.04052531719207764, -0.037568144500255585, -0.034610968083143234, -0.03165379539132118, -0.02869662269949913, -0.025739450007677078, -0.022782275453209877, -0.019825104624032974, -0.016867931932210922, -0.013910757377743721, -0.010953584685921669, -0.007996411062777042, -0.005039237439632416, -0.0020820642821490765, 0.0008751091081649065, 0.0038322806358337402, 0.006789454258978367, 0.009746627882122993, 0.012703800573945045, 0.015660975128412247, 0.0186181478202343, 0.02157532051205635, 0.024532495066523552, 0.027489669620990753, 0.030446842312812805, 0.03340401500463486, 0.03636119142174721, 0.03931836411356926, 0.04227553680539131, 0.045232709497213364, 0.048189882189035416, 0.051147058606147766, 0.05410423129796982, 0.05706140398979187, 0.06001858040690422, 0.06297574937343597, 0.06593292206525803, 0.06889010220766068, 0.07184727489948273, 0.07480444014072418, 0.07776161283254623, 0.08071878552436829, 0.08367595821619034, 0.08663313090801239, 0.08959030359983444, 0.09254748374223709, 0.09550465643405914, 0.0984618291258812, 0.10141900181770325, 0.1043761745095253, 0.10733334720134735, 0.1102905198931694, 0.11324769258499146, 0.1162048727273941, 0.11916204541921616, 0.12211921811103821]}, "_timestamp": 1677727219.329489, "gradients/clf.weight": {"_type": "histogram", "values": [1.0, 0.0, 0.0, 1.0, 4.0, 1.0, 0.0, 0.0, 1.0, 1.0, 0.0, 1.0, 4.0, 0.0, 8.0, 4.0, 1.0, 3.0, 3.0, 5.0, 5.0, 4.0, 5.0, 3.0, 5.0, 8.0, 8.0, 10.0, 8.0, 9.0, 13.0, 2.0, 5.0, 7.0, 5.0, 5.0, 12.0, 9.0, 4.0, 5.0, 2.0, 2.0, 1.0, 1.0, 2.0, 3.0, 3.0, 2.0, 0.0, 1.0, 1.0, 0.0, 0.0, 1.0, 1.0, 0.0, 0.0, 0.0, 0.0, 1.0, 0.0, 0.0, 0.0, 1.0], "bins": [-0.33156880736351013, -0.32011792063713074, -0.30866703391075134, -0.29721614718437195, -0.28576523065567017, -0.27431434392929077, -0.2628634572029114, -0.251412570476532, -0.2399616837501526, -0.2285107970237732, -0.2170598953962326, -0.2056090086698532, -0.19415812194347382, -0.18270722031593323, -0.17125633358955383, -0.15980544686317444, -0.14835454523563385, -0.13690365850925446, -0.12545275688171387, -0.11400187015533447, -0.10255098342895508, -0.09110008925199509, -0.0796491950750351, -0.0681983083486557, -0.05674740672111511, -0.04529651626944542, -0.033845625817775726, -0.022394731640815735, -0.010943841189146042, 0.0005070501938462257, 0.011957941576838493, 0.023408833891153336, 0.03485971689224243, 0.046310607343912125, 0.05776149779558182, 0.06921239197254181, 0.0806632786989212, 0.0921141728758812, 0.10356506705284119, 0.11501595377922058, 0.12646684050559998, 0.13791772723197937, 0.14936862885951996, 0.16081951558589935, 0.17227040231227875, 0.18372130393981934, 0.19517219066619873, 0.20662307739257812, 0.2180739790201187, 0.2295248657464981, 0.2409757673740387, 0.2524266541004181, 0.2638775408267975, 0.2753284275531769, 0.2867793142795563, 0.29823023080825806, 0.30968111753463745, 0.32113200426101685, 0.33258289098739624, 0.34403377771377563, 0.3554846942424774, 0.3669355809688568, 0.3783864676952362, 0.3898373544216156, 0.401288241147995]}, "gradients/mixer.gamma": {"_type": "histogram", "values": [0.0, 0.0, 0.0, 0.0, 0.0, 0.0, 0.0, 0.0, 0.0, 0.0, 0.0, 0.0, 0.0, 0.0, 0.0, 0.0, 0.0, 0.0, 0.0, 0.0, 0.0, 0.0, 0.0, 0.0, 0.0, 0.0, 0.0, 0.0, 0.0, 0.0, 0.0, 0.0, 1.0, 0.0, 0.0, 0.0, 0.0, 0.0, 0.0, 0.0, 0.0, 0.0, 0.0, 0.0, 0.0, 0.0, 0.0, 0.0, 0.0, 0.0, 0.0, 0.0, 0.0, 0.0, 0.0, 0.0, 0.0, 0.0, 0.0, 0.0, 0.0, 0.0, 0.0, 0.0], "bins": [-0.18156450986862183, -0.18156450986862183, -0.18156450986862183, -0.18156450986862183, -0.18156450986862183, -0.18156450986862183, -0.18156450986862183, -0.18156450986862183, -0.18156450986862183, -0.18156450986862183, -0.18156450986862183, -0.18156450986862183, -0.18156450986862183, -0.18156450986862183, -0.18156450986862183, -0.18156450986862183, -0.18156450986862183, -0.18156450986862183, -0.18156450986862183, -0.18156450986862183, -0.18156450986862183, -0.18156450986862183, -0.18156450986862183, -0.18156450986862183, -0.18156450986862183, -0.18156450986862183, -0.18156450986862183, -0.18156450986862183, -0.18156450986862183, -0.18156450986862183, -0.18156450986862183, -0.18156450986862183, -0.18156450986862183, -0.18156450986862183, -0.18156450986862183, -0.18156450986862183, -0.18156450986862183, -0.18156450986862183, -0.18156450986862183, -0.18156450986862183, -0.18156450986862183, -0.18156450986862183, -0.18156450986862183, -0.18156450986862183, -0.18156450986862183, -0.18156450986862183, -0.18156450986862183, -0.18156450986862183, -0.18156450986862183, -0.18156450986862183, -0.18156450986862183, -0.18156450986862183, -0.18156450986862183, -0.18156450986862183, -0.18156450986862183, -0.18156450986862183, -0.18156450986862183, -0.18156450986862183, -0.18156450986862183, -0.18156450986862183, -0.18156450986862183, -0.18156450986862183, -0.18156450986862183, -0.18156450986862183, -0.18156450986862183]}, "gradients/mixer.scalar_parameters.0": {"_type": "histogram", "values": [0.0, 0.0, 0.0, 0.0, 0.0, 0.0, 0.0, 0.0, 0.0, 0.0, 0.0, 0.0, 0.0, 0.0, 0.0, 0.0, 0.0, 0.0, 0.0, 0.0, 0.0, 0.0, 0.0, 0.0, 0.0, 0.0, 0.0, 0.0, 0.0, 0.0, 0.0, 0.0, 1.0, 0.0, 0.0, 0.0, 0.0, 0.0, 0.0, 0.0, 0.0, 0.0, 0.0, 0.0, 0.0, 0.0, 0.0, 0.0, 0.0, 0.0, 0.0, 0.0, 0.0, 0.0, 0.0, 0.0, 0.0, 0.0, 0.0, 0.0, 0.0, 0.0, 0.0, 0.0], "bins": [-0.018178418278694153, -0.018178418278694153, -0.018178418278694153, -0.018178418278694153, -0.018178418278694153, -0.018178418278694153, -0.018178418278694153, -0.018178418278694153, -0.018178418278694153, -0.018178418278694153, -0.018178418278694153, -0.018178418278694153, -0.018178418278694153, -0.018178418278694153, -0.018178418278694153, -0.018178418278694153, -0.018178418278694153, -0.018178418278694153, -0.018178418278694153, -0.018178418278694153, -0.018178418278694153, -0.018178418278694153, -0.018178418278694153, -0.018178418278694153, -0.018178418278694153, -0.018178418278694153, -0.018178418278694153, -0.018178418278694153, -0.018178418278694153, -0.018178418278694153, -0.018178418278694153, -0.018178418278694153, -0.018178418278694153, -0.018178418278694153, -0.018178418278694153, -0.018178418278694153, -0.018178418278694153, -0.018178418278694153, -0.018178418278694153, -0.018178418278694153, -0.018178418278694153, -0.018178418278694153, -0.018178418278694153, -0.018178418278694153, -0.018178418278694153, -0.018178418278694153, -0.018178418278694153, -0.018178418278694153, -0.018178418278694153, -0.018178418278694153, -0.018178418278694153, -0.018178418278694153, -0.018178418278694153, -0.018178418278694153, -0.018178418278694153, -0.018178418278694153, -0.018178418278694153, -0.018178418278694153, -0.018178418278694153, -0.018178418278694153, -0.018178418278694153, -0.018178418278694153, -0.018178418278694153, -0.018178418278694153, -0.018178418278694153]}, "gradients/mixer.scalar_parameters.1": {"_type": "histogram", "values": [0.0, 0.0, 0.0, 0.0, 0.0, 0.0, 0.0, 0.0, 0.0, 0.0, 0.0, 0.0, 0.0, 0.0, 0.0, 0.0, 0.0, 0.0, 0.0, 0.0, 0.0, 0.0, 0.0, 0.0, 0.0, 0.0, 0.0, 0.0, 0.0, 0.0, 0.0, 1.0, 0.0, 0.0, 0.0, 0.0, 0.0, 0.0, 0.0, 0.0, 0.0, 0.0, 0.0, 0.0, 0.0, 0.0, 0.0, 0.0, 0.0, 0.0, 0.0, 0.0, 0.0, 0.0, 0.0, 0.0, 0.0, 0.0, 0.0, 0.0, 0.0, 0.0, 0.0, 0.0], "bins": [-0.03208380192518234, -0.03208380192518234, -0.03208380192518234, -0.03208380192518234, -0.03208380192518234, -0.03208380192518234, -0.03208380192518234, -0.03208380192518234, -0.03208380192518234, -0.03208380192518234, -0.03208380192518234, -0.03208380192518234, -0.03208380192518234, -0.03208380192518234, -0.03208380192518234, -0.03208380192518234, -0.03208380192518234, -0.03208380192518234, -0.03208380192518234, -0.03208380192518234, -0.03208380192518234, -0.03208380192518234, -0.03208380192518234, -0.03208380192518234, -0.03208380192518234, -0.03208380192518234, -0.03208380192518234, -0.03208380192518234, -0.03208380192518234, -0.03208380192518234, -0.03208380192518234, -0.03208380192518234, -0.03208380192518234, -0.03208380192518234, -0.03208380192518234, -0.03208380192518234, -0.03208380192518234, -0.03208380192518234, -0.03208380192518234, -0.03208380192518234, -0.03208380192518234, -0.03208380192518234, -0.03208380192518234, -0.03208380192518234, -0.03208380192518234, -0.03208380192518234, -0.03208380192518234, -0.03208380192518234, -0.03208380192518234, -0.03208380192518234, -0.03208380192518234, -0.03208380192518234, -0.03208380192518234, -0.03208380192518234, -0.03208380192518234, -0.03208380192518234, -0.03208380192518234, -0.03208380192518234, -0.03208380192518234, -0.03208380192518234, -0.03208380192518234, -0.03208380192518234, -0.03208380192518234, -0.03208380192518234, -0.03208380192518234]}, "gradients/mixer.scalar_parameters.3": {"_type": "histogram", "values": [0.0, 0.0, 0.0, 0.0, 0.0, 0.0, 0.0, 0.0, 0.0, 0.0, 0.0, 0.0, 0.0, 0.0, 0.0, 0.0, 0.0, 0.0, 0.0, 0.0, 0.0, 0.0, 0.0, 0.0, 0.0, 0.0, 0.0, 0.0, 0.0, 0.0, 0.0, 0.0, 1.0, 0.0, 0.0, 0.0, 0.0, 0.0, 0.0, 0.0, 0.0, 0.0, 0.0, 0.0, 0.0, 0.0, 0.0, 0.0, 0.0, 0.0, 0.0, 0.0, 0.0, 0.0, 0.0, 0.0, 0.0, 0.0, 0.0, 0.0, 0.0, 0.0, 0.0, 0.0], "bins": [-0.005200955085456371, -0.005200955085456371, -0.005200955085456371, -0.005200955085456371, -0.005200955085456371, -0.005200955085456371, -0.005200955085456371, -0.005200955085456371, -0.005200955085456371, -0.005200955085456371, -0.005200955085456371, -0.005200955085456371, -0.005200955085456371, -0.005200955085456371, -0.005200955085456371, -0.005200955085456371, -0.005200955085456371, -0.005200955085456371, -0.005200955085456371, -0.005200955085456371, -0.005200955085456371, -0.005200955085456371, -0.005200955085456371, -0.005200955085456371, -0.005200955085456371, -0.005200955085456371, -0.005200955085456371, -0.005200955085456371, -0.005200955085456371, -0.005200955085456371, -0.005200955085456371, -0.005200955085456371, -0.005200955085456371, -0.005200955085456371, -0.005200955085456371, -0.005200955085456371, -0.005200955085456371, -0.005200955085456371, -0.005200955085456371, -0.005200955085456371, -0.005200955085456371, -0.005200955085456371, -0.005200955085456371, -0.005200955085456371, -0.005200955085456371, -0.005200955085456371, -0.005200955085456371, -0.005200955085456371, -0.005200955085456371, -0.005200955085456371, -0.005200955085456371, -0.005200955085456371, -0.005200955085456371, -0.005200955085456371, -0.005200955085456371, -0.005200955085456371, -0.005200955085456371, -0.005200955085456371, -0.005200955085456371, -0.005200955085456371, -0.005200955085456371, -0.005200955085456371, -0.005200955085456371, -0.005200955085456371, -0.005200955085456371]}, "gradients/mixer.scalar_parameters.7": {"_type": "histogram", "values": [0.0, 0.0, 0.0, 0.0, 0.0, 0.0, 0.0, 0.0, 0.0, 0.0, 0.0, 0.0, 0.0, 0.0, 0.0, 0.0, 0.0, 0.0, 0.0, 0.0, 0.0, 0.0, 0.0, 0.0, 0.0, 0.0, 0.0, 0.0, 0.0, 0.0, 0.0, 0.0, 1.0, 0.0, 0.0, 0.0, 0.0, 0.0, 0.0, 0.0, 0.0, 0.0, 0.0, 0.0, 0.0, 0.0, 0.0, 0.0, 0.0, 0.0, 0.0, 0.0, 0.0, 0.0, 0.0, 0.0, 0.0, 0.0, 0.0, 0.0, 0.0, 0.0, 0.0, 0.0], "bins": [0.031748879700899124, 0.031748879700899124, 0.031748879700899124, 0.031748879700899124, 0.031748879700899124, 0.031748879700899124, 0.031748879700899124, 0.031748879700899124, 0.031748879700899124, 0.031748879700899124, 0.031748879700899124, 0.031748879700899124, 0.031748879700899124, 0.031748879700899124, 0.031748879700899124, 0.031748879700899124, 0.031748879700899124, 0.031748879700899124, 0.031748879700899124, 0.031748879700899124, 0.031748879700899124, 0.031748879700899124, 0.031748879700899124, 0.031748879700899124, 0.031748879700899124, 0.031748879700899124, 0.031748879700899124, 0.031748879700899124, 0.031748879700899124, 0.031748879700899124, 0.031748879700899124, 0.031748879700899124, 0.031748879700899124, 0.031748879700899124, 0.031748879700899124, 0.031748879700899124, 0.031748879700899124, 0.031748879700899124, 0.031748879700899124, 0.031748879700899124, 0.031748879700899124, 0.031748879700899124, 0.031748879700899124, 0.031748879700899124, 0.031748879700899124, 0.031748879700899124, 0.031748879700899124, 0.031748879700899124, 0.031748879700899124, 0.031748879700899124, 0.031748879700899124, 0.031748879700899124, 0.031748879700899124, 0.031748879700899124, 0.031748879700899124, 0.031748879700899124, 0.031748879700899124, 0.031748879700899124, 0.031748879700899124, 0.031748879700899124, 0.031748879700899124, 0.031748879700899124, 0.031748879700899124, 0.031748879700899124, 0.031748879700899124]}, "gradients/mixer.scalar_parameters.6": {"_type": "histogram", "values": [0.0, 0.0, 0.0, 0.0, 0.0, 0.0, 0.0, 0.0, 0.0, 0.0, 0.0, 0.0, 0.0, 0.0, 0.0, 0.0, 0.0, 0.0, 0.0, 0.0, 0.0, 0.0, 0.0, 0.0, 0.0, 0.0, 0.0, 0.0, 0.0, 0.0, 0.0, 1.0, 0.0, 0.0, 0.0, 0.0, 0.0, 0.0, 0.0, 0.0, 0.0, 0.0, 0.0, 0.0, 0.0, 0.0, 0.0, 0.0, 0.0, 0.0, 0.0, 0.0, 0.0, 0.0, 0.0, 0.0, 0.0, 0.0, 0.0, 0.0, 0.0, 0.0, 0.0, 0.0], "bins": [-0.016733679920434952, -0.016733679920434952, -0.016733679920434952, -0.016733679920434952, -0.016733679920434952, -0.016733679920434952, -0.016733679920434952, -0.016733679920434952, -0.016733679920434952, -0.016733679920434952, -0.016733679920434952, -0.016733679920434952, -0.016733679920434952, -0.016733679920434952, -0.016733679920434952, -0.016733679920434952, -0.016733679920434952, -0.016733679920434952, -0.016733679920434952, -0.016733679920434952, -0.016733679920434952, -0.016733679920434952, -0.016733679920434952, -0.016733679920434952, -0.016733679920434952, -0.016733679920434952, -0.016733679920434952, -0.016733679920434952, -0.016733679920434952, -0.016733679920434952, -0.016733679920434952, -0.016733679920434952, -0.016733679920434952, -0.016733679920434952, -0.016733679920434952, -0.016733679920434952, -0.016733679920434952, -0.016733679920434952, -0.016733679920434952, -0.016733679920434952, -0.016733679920434952, -0.016733679920434952, -0.016733679920434952, -0.016733679920434952, -0.016733679920434952, -0.016733679920434952, -0.016733679920434952, -0.016733679920434952, -0.016733679920434952, -0.016733679920434952, -0.016733679920434952, -0.016733679920434952, -0.016733679920434952, -0.016733679920434952, -0.016733679920434952, -0.016733679920434952, -0.016733679920434952, -0.016733679920434952, -0.016733679920434952, -0.016733679920434952, -0.016733679920434952, -0.016733679920434952, -0.016733679920434952, -0.016733679920434952, -0.016733679920434952]}, "gradients/mixer.scalar_parameters.5": {"_type": "histogram", "values": [0.0, 0.0, 0.0, 0.0, 0.0, 0.0, 0.0, 0.0, 0.0, 0.0, 0.0, 0.0, 0.0, 0.0, 0.0, 0.0, 0.0, 0.0, 0.0, 0.0, 0.0, 0.0, 0.0, 0.0, 0.0, 0.0, 0.0, 0.0, 0.0, 0.0, 0.0, 0.0, 1.0, 0.0, 0.0, 0.0, 0.0, 0.0, 0.0, 0.0, 0.0, 0.0, 0.0, 0.0, 0.0, 0.0, 0.0, 0.0, 0.0, 0.0, 0.0, 0.0, 0.0, 0.0, 0.0, 0.0, 0.0, 0.0, 0.0, 0.0, 0.0, 0.0, 0.0, 0.0], "bins": [0.04331900551915169, 0.04331900551915169, 0.04331900551915169, 0.04331900551915169, 0.04331900551915169, 0.04331900551915169, 0.04331900551915169, 0.04331900551915169, 0.04331900551915169, 0.04331900551915169, 0.04331900551915169, 0.04331900551915169, 0.04331900551915169, 0.04331900551915169, 0.04331900551915169, 0.04331900551915169, 0.04331900551915169, 0.04331900551915169, 0.04331900551915169, 0.04331900551915169, 0.04331900551915169, 0.04331900551915169, 0.04331900551915169, 0.04331900551915169, 0.04331900551915169, 0.04331900551915169, 0.04331900551915169, 0.04331900551915169, 0.04331900551915169, 0.04331900551915169, 0.04331900551915169, 0.04331900551915169, 0.04331900551915169, 0.04331900551915169, 0.04331900551915169, 0.04331900551915169, 0.04331900551915169, 0.04331900551915169, 0.04331900551915169, 0.04331900551915169, 0.04331900551915169, 0.04331900551915169, 0.04331900551915169, 0.04331900551915169, 0.04331900551915169, 0.04331900551915169, 0.04331900551915169, 0.04331900551915169, 0.04331900551915169, 0.04331900551915169, 0.04331900551915169, 0.04331900551915169, 0.04331900551915169, 0.04331900551915169, 0.04331900551915169, 0.04331900551915169, 0.04331900551915169, 0.04331900551915169, 0.04331900551915169, 0.04331900551915169, 0.04331900551915169, 0.04331900551915169, 0.04331900551915169, 0.04331900551915169, 0.04331900551915169]}, "gradients/mixer.scalar_parameters.4": {"_type": "histogram", "values": [0.0, 0.0, 0.0, 0.0, 0.0, 0.0, 0.0, 0.0, 0.0, 0.0, 0.0, 0.0, 0.0, 0.0, 0.0, 0.0, 0.0, 0.0, 0.0, 0.0, 0.0, 0.0, 0.0, 0.0, 0.0, 0.0, 0.0, 0.0, 0.0, 0.0, 0.0, 0.0, 1.0, 0.0, 0.0, 0.0, 0.0, 0.0, 0.0, 0.0, 0.0, 0.0, 0.0, 0.0, 0.0, 0.0, 0.0, 0.0, 0.0, 0.0, 0.0, 0.0, 0.0, 0.0, 0.0, 0.0, 0.0, 0.0, 0.0, 0.0, 0.0, 0.0, 0.0, 0.0], "bins": [-0.004565001931041479, -0.004565001931041479, -0.004565001931041479, -0.004565001931041479, -0.004565001931041479, -0.004565001931041479, -0.004565001931041479, -0.004565001931041479, -0.004565001931041479, -0.004565001931041479, -0.004565001931041479, -0.004565001931041479, -0.004565001931041479, -0.004565001931041479, -0.004565001931041479, -0.004565001931041479, -0.004565001931041479, -0.004565001931041479, -0.004565001931041479, -0.004565001931041479, -0.004565001931041479, -0.004565001931041479, -0.004565001931041479, -0.004565001931041479, -0.004565001931041479, -0.004565001931041479, -0.004565001931041479, -0.004565001931041479, -0.004565001931041479, -0.004565001931041479, -0.004565001931041479, -0.004565001931041479, -0.004565001931041479, -0.004565001931041479, -0.004565001931041479, -0.004565001931041479, -0.004565001931041479, -0.004565001931041479, -0.004565001931041479, -0.004565001931041479, -0.004565001931041479, -0.004565001931041479, -0.004565001931041479, -0.004565001931041479, -0.004565001931041479, -0.004565001931041479, -0.004565001931041479, -0.004565001931041479, -0.004565001931041479, -0.004565001931041479, -0.004565001931041479, -0.004565001931041479, -0.004565001931041479, -0.004565001931041479, -0.004565001931041479, -0.004565001931041479, -0.004565001931041479, -0.004565001931041479, -0.004565001931041479, -0.004565001931041479, -0.004565001931041479, -0.004565001931041479, -0.004565001931041479, -0.004565001931041479, -0.004565001931041479]}, "gradients/mixer.scalar_parameters.2": {"_type": "histogram", "values": [0.0, 0.0, 0.0, 0.0, 0.0, 0.0, 0.0, 0.0, 0.0, 0.0, 0.0, 0.0, 0.0, 0.0, 0.0, 0.0, 0.0, 0.0, 0.0, 0.0, 0.0, 0.0, 0.0, 0.0, 0.0, 0.0, 0.0, 0.0, 0.0, 0.0, 0.0, 0.0, 1.0, 0.0, 0.0, 0.0, 0.0, 0.0, 0.0, 0.0, 0.0, 0.0, 0.0, 0.0, 0.0, 0.0, 0.0, 0.0, 0.0, 0.0, 0.0, 0.0, 0.0, 0.0, 0.0, 0.0, 0.0, 0.0, 0.0, 0.0, 0.0, 0.0, 0.0, 0.0], "bins": [0.0016939783236011863, 0.0016939783236011863, 0.0016939783236011863, 0.0016939783236011863, 0.0016939783236011863, 0.0016939783236011863, 0.0016939783236011863, 0.0016939783236011863, 0.0016939783236011863, 0.0016939783236011863, 0.0016939783236011863, 0.0016939783236011863, 0.0016939783236011863, 0.0016939783236011863, 0.0016939783236011863, 0.0016939783236011863, 0.0016939783236011863, 0.0016939783236011863, 0.0016939783236011863, 0.0016939783236011863, 0.0016939783236011863, 0.0016939783236011863, 0.0016939783236011863, 0.0016939783236011863, 0.0016939783236011863, 0.0016939783236011863, 0.0016939783236011863, 0.0016939783236011863, 0.0016939783236011863, 0.0016939783236011863, 0.0016939783236011863, 0.0016939783236011863, 0.0016939783236011863, 0.0016939783236011863, 0.0016939783236011863, 0.0016939783236011863, 0.0016939783236011863, 0.0016939783236011863, 0.0016939783236011863, 0.0016939783236011863, 0.0016939783236011863, 0.0016939783236011863, 0.0016939783236011863, 0.0016939783236011863, 0.0016939783236011863, 0.0016939783236011863, 0.0016939783236011863, 0.0016939783236011863, 0.0016939783236011863, 0.0016939783236011863, 0.0016939783236011863, 0.0016939783236011863, 0.0016939783236011863, 0.0016939783236011863, 0.0016939783236011863, 0.0016939783236011863, 0.0016939783236011863, 0.0016939783236011863, 0.0016939783236011863, 0.0016939783236011863, 0.0016939783236011863, 0.0016939783236011863, 0.0016939783236011863, 0.0016939783236011863, 0.0016939783236011863]}, "train/loss": 1.0374, "train/learning_rate": 4.999836497028515e-05, "train/epoch": 0.01, "train/global_step": 500, "_runtime": 119.5419659614563, "_step": 0, "_wandb": {"runtime": 170}}